1.000000 1.000000 1.000000
-0.000293 -0.004506 0.002958
0.003386 0.001773 -0.002291
-0.000731 0.001626 0.001948
0.001142 -0.001471 0.002083
-0.000654 0.003696 0.000381
0.002115 -0.002345 -0.001238
0.004172 0.001821 -0.001774
-0.002878 0.000607 0.001421
0.000820 -0.000992 0.000452
-0.000432 0.002806 -0.000061
0.003019 0.003729 -0.003463
0.001756 -0.001334 0.003704
-0.000481 -0.002851 0.001575
-0.000072 0.000124 0.002084
-0.001197 0.000357 0.000943
0.003088 -0.001195 -0.001040
-0.002417 0.000647 0.004637
-0.001879 0.000887 0.000214
0.000417 0.003817 0.000182
0.002599 0.000295 0.000118
-0.000557 -0.002628 0.002337
-0.002639 -0.004640 -0.000521
-0.004140 -0.000373 0.001737
-0.000606 -0.000059 0.001170
0.001979 -0.000499 0.002832
-0.002279 -0.003169 -0.002156
0.002909 -0.000566 0.001025
0.000400 0.001046 -0.001113
-0.000432 -0.001813 -0.001362
-0.000175 0.000508 0.001750
-0.001610 -0.003041 0.000294
0.000776 0.001241 0.001010
0.000440 -0.002459 -0.005118
0.000819 0.000329 -0.001836
-0.002685 0.000267 0.000869
-0.001078 -0.002379 0.000063
0.002815 0.001288 -0.000098
-0.001462 -0.000581 -0.002039
-0.002300 -0.005040 -0.000886
-0.002497 -0.000848 -0.003799
-0.001025 0.003229 -0.002087
0.001200 0.000365 0.001676
-0.003817 0.001267 -0.000524
0.001744 0.003732 0.000518
-0.000162 0.001320 0.003769
-0.007614 -0.002673 -0.000136
0.000622 -0.001727 -0.001238
0.004490 0.000638 0.001136
0.000562 0.001993 0.002981
0.001178 -0.001362 -0.000414
-0.000968 -0.000771 0.001096
-0.002284 0.000542 -0.000251
-0.003259 -0.000345 0.000018
-0.001907 -0.002475 -0.001774
-0.000810 0.001082 0.005257
-0.000544 -0.001571 0.003141
0.000068 -0.002761 0.003034
0.003871 0.000754 -0.001542
0.002613 0.000976 0.002211
-0.001905 -0.002508 0.001173
-0.000710 0.003518 -0.000103
-0.002389 0.001563 0.001263
-0.001422 -0.000803 -0.001302
-0.001353 -0.000972 -0.001024
0.000061 0.002041 -0.001217
0.001651 0.003324 0.000166
-0.000484 0.000208 0.001485
0.002569 -0.001366 0.001098
-0.001504 -0.002036 -0.001435
0.000028 0.001542 -0.000953
-0.000459 -0.001454 -0.002097
0.001840 -0.000456 -0.000688
-0.000241 -0.003395 0.003219
0.001626 0.001283 -0.001493
0.000730 -0.001174 -0.003808
0.002587 0.002482 0.001901
0.003656 -0.001527 -0.001908
-0.004768 -0.000493 -0.002058
0.004660 0.001281 0.000806
-0.002220 0.000716 -0.000108
0.000742 0.001559 0.000060
0.000712 -0.000342 -0.004785
0.000022 0.001588 -0.003270
-0.001144 -0.000753 -0.000150
0.005452 -0.001970 -0.000717
0.003028 -0.000099 -0.000138
-0.000283 -0.000528 -0.001679
0.002843 -0.003371 -0.000279
-0.002177 -0.000068 0.000406
-0.000975 0.004459 -0.001922
-0.000058 0.001824 -0.000027
-0.000800 0.002381 0.000591
-0.002075 -0.001465 0.004273
-0.001509 -0.000945 -0.002179
-0.001111 0.002436 -0.005211
-0.000866 -0.001129 0.000034
0.002170 -0.001506 -0.001572
-0.002989 -0.001625 -0.002722
0.002468 -0.000761 -0.001513
0.001794 -0.000180 -0.000954
-0.001128 -0.000218 0.000989
0.000870 0.000055 -0.000361
0.000333 -0.000626 -0.001853
-0.003079 0.002198 0.002794
0.001670 -0.001050 0.001604
0.002528 -0.000015 -0.002199
0.000088 0.001812 0.001394
0.005155 -0.000141 0.001070
-0.000376 -0.003559 -0.000039
0.000602 -0.001897 0.001939
-0.000009 0.002581 0.003742
-0.002354 0.005058 -0.001498
-0.001323 0.001506 0.003408
-0.003124 -0.004528 -0.002749
0.000836 -0.000371 0.000520
-0.001333 0.002006 -0.000065
0.001359 0.001793 -0.000874
0.000327 -0.002819 0.001699
0.001568 0.001539 -0.001037
-0.001702 0.000498 0.004049
0.001850 -0.002276 0.003882
0.001552 -0.001414 -0.000304
-0.001292 0.002289 0.000434
0.000171 -0.000654 0.001838
-0.000051 0.002840 -0.002031
0.002233 -0.000854 -0.003652
-0.000064 -0.000283 -0.001824
0.001364 0.004574 -0.003934
-0.001018 0.001527 0.001930
0.002379 -0.000088 -0.001706
0.004420 0.001284 -0.001899
0.001596 -0.000605 0.000609
0.000094 -0.000034 0.003634
-0.001243 0.002212 0.001264
-0.001161 -0.000739 0.000650
0.000569 0.000331 -0.001794
0.000346 0.002658 -0.000253
-0.000366 0.001160 0.000788
-0.000853 -0.003050 0.001275
0.000503 0.001710 -0.003751
-0.004016 0.001698 -0.001195
0.000343 -0.000431 0.000139
0.001084 -0.002403 -0.002128
-0.002110 0.004296 0.001423
-0.000747 0.000785 -0.002246
0.000378 0.003536 -0.003370
-0.000186 -0.000907 -0.002674
-0.000367 -0.000335 -0.001910
-0.000459 0.001347 -0.002738
0.004478 -0.001426 -0.003869
0.001714 -0.001253 -0.001987
0.002420 -0.002075 0.001653
-0.000585 0.001458 0.001687
-0.000469 0.001369 -0.001579
-0.001240 -0.000263 -0.002183
-0.000279 -0.001944 0.001366
-0.000010 -0.000391 -0.000182
-0.005850 0.000190 0.000826
-0.002237 0.004490 0.000725
0.000251 0.001278 0.000439
-0.001901 0.001080 -0.001274
0.000834 0.001802 -0.004276
-0.001962 -0.002434 0.000648
0.002272 -0.002593 -0.003973
0.002345 0.004346 0.001368
-0.001999 -0.000021 -0.001378
-0.000525 -0.000772 0.002312
0.001258 -0.005671 0.000745
0.003298 -0.002624 -0.001131
0.002739 -0.003173 0.003439
-0.002579 0.001172 -0.001543
-0.002350 0.000991 -0.002149
0.001279 -0.001813 0.004295
-0.002251 -0.002507 -0.000907
0.000136 -0.002354 -0.000092
-0.002647 0.000142 0.000524
-0.000269 -0.003600 0.002065
-0.000079 -0.001209 0.000188
-0.002123 -0.002317 -0.000768
0.002569 -0.000253 -0.000793
-0.000879 0.002479 -0.002721
-0.001461 -0.000663 0.000481
0.000970 0.002627 -0.000318
0.000558 -0.001244 -0.005150
0.000899 0.004269 -0.001515
-0.002812 -0.000620 0.002906
-0.001271 0.000284 -0.001989
-0.005096 -0.003519 -0.000699
-0.001757 -0.000086 0.001386
-0.000989 -0.000582 -0.002630
-0.001533 -0.002680 0.000748
0.000245 -0.003029 0.000022
0.000587 -0.000787 -0.001861
-0.000713 -0.003051 0.002769
-0.001377 -0.002369 0.000293
-0.001763 -0.005320 -0.002607
0.001729 0.001814 0.001211
0.000774 0.003881 0.000918
-0.001367 0.001504 -0.001619
