1.000000 1.000000 1.000000
-0.000293 -0.004506 0.002958
0.003386 0.001773 -0.002291
-0.000731 0.001626 0.001948
0.001142 -0.001471 0.002083
-0.000654 0.003696 0.000381
0.002115 -0.002345 -0.001238
0.004172 0.001821 -0.001774
-0.002878 0.000607 0.001421
0.000820 -0.000992 0.000452
-0.000432 0.002806 -0.000061
0.003019 0.003729 -0.003463
0.001756 -0.001334 0.003704
-0.000481 -0.002851 0.001575
-0.000072 0.000124 0.002085
-0.001197 0.000357 0.000943
0.003088 -0.001195 -0.001040
-0.002418 0.000647 0.004637
-0.001879 0.000887 0.000214
0.000417 0.003818 0.000182
0.002599 0.000295 0.000118
-0.000557 -0.002628 0.002337
-0.002640 -0.004641 -0.000521
-0.004141 -0.000373 0.001737
-0.000606 -0.000059 0.001170
0.001979 -0.000499 0.002832
-0.002280 -0.003169 -0.002156
0.002910 -0.000566 0.001025
0.000400 0.001046 -0.001113
-0.000432 -0.001813 -0.001362
-0.000175 0.000508 0.001750
-0.001610 -0.003042 0.000294
0.000776 0.001242 0.001010
0.000440 -0.002460 -0.005118
0.000819 0.000329 -0.001837
-0.002686 0.000267 0.000869
-0.001078 -0.002380 0.000063
0.002816 0.001288 -0.000098
-0.001462 -0.000581 -0.002039
-0.002300 -0.005041 -0.000887
-0.002497 -0.000849 -0.003799
-0.001026 0.003229 -0.002087
0.001200 0.000365 0.001676
-0.003818 0.001267 -0.000524
0.001744 0.003732 0.000518
-0.000162 0.001321 0.003770
-0.007615 -0.002673 -0.000136
0.000623 -0.001728 -0.001238
0.004491 0.000639 0.001137
0.000562 0.001993 0.002982
0.001178 -0.001363 -0.000414
-0.000968 -0.000771 0.001096
-0.002284 0.000542 -0.000251
-0.003259 -0.000345 0.000018
-0.001908 -0.002476 -0.001774
-0.000810 0.001082 0.005259
-0.000544 -0.001571 0.003142
0.000068 -0.002761 0.003034
0.003872 0.000754 -0.001543
0.002614 0.000976 0.002212
-0.001905 -0.002509 0.001173
-0.000711 0.003519 -0.000103
-0.002389 0.001563 0.001264
-0.001422 -0.000803 -0.001302
-0.001354 -0.000973 -0.001024
0.000061 0.002042 -0.001218
0.001651 0.003325 0.000166
-0.000484 0.000208 0.001485
0.002570 -0.001367 0.001098
-0.001504 -0.002036 -0.001436
0.000028 0.001542 -0.000953
-0.000459 -0.001455 -0.002098
0.001840 -0.000456 -0.000688
-0.000241 -0.003396 0.003220
0.001626 0.001284 -0.001493
0.000730 -0.001174 -0.003809
0.002588 0.002483 0.001901
0.003657 -0.001528 -0.001908
-0.004769 -0.000493 -0.002058
0.004662 0.001281 0.000806
-0.002221 0.000716 -0.000108
0.000742 0.001559 0.000060
0.000712 -0.000342 -0.004787
0.000022 0.001588 -0.003271
-0.001144 -0.000753 -0.000150
0.005454 -0.001971 -0.000717
0.003029 -0.000099 -0.000138
-0.000283 -0.000528 -0.001680
0.002843 -0.003372 -0.000279
-0.002178 -0.000068 0.000406
-0.000975 0.004460 -0.001923
-0.000058 0.001824 -0.000027
-0.000800 0.002382 0.000591
-0.002076 -0.001465 0.004274
-0.001510 -0.000945 -0.002180
-0.001111 0.002437 -0.005212
-0.000866 -0.001130 0.000034
0.002171 -0.001507 -0.001572
-0.002990 -0.001626 -0.002723
0.002469 -0.000761 -0.001514
0.001795 -0.000180 -0.000954
-0.001129 -0.000218 0.000989
0.000870 0.000055 -0.000362
0.000334 -0.000626 -0.001853
-0.003080 0.002199 0.002796
0.001671 -0.001051 0.001604
0.002529 -0.000015 -0.002200
0.000088 0.001813 0.001394
0.005157 -0.000142 0.001071
-0.000376 -0.003560 -0.000039
0.000602 -0.001898 0.001940
-0.000009 0.002582 0.003744
-0.002355 0.005060 -0.001498
-0.001323 0.001506 0.003409
-0.003125 -0.004530 -0.002750
0.000836 -0.000371 0.000520
-0.001333 0.002007 -0.000065
0.001360 0.001793 -0.000875
0.000327 -0.002821 0.001700
0.001569 0.001539 -0.001038
-0.001703 0.000499 0.004051
0.001851 -0.002277 0.003884
0.001553 -0.001415 -0.000305
-0.001293 0.002290 0.000434
0.000171 -0.000654 0.001839
-0.000051 0.002842 -0.002032
0.002234 -0.000854 -0.003654
-0.000064 -0.000283 -0.001825
0.001365 0.004576 -0.003936
-0.001018 0.001528 0.001931
0.002381 -0.000088 -0.001707
0.004422 0.001285 -0.001900
0.001597 -0.000605 0.000609
0.000094 -0.000034 0.003636
-0.001243 0.002214 0.001265
-0.001161 -0.000739 0.000651
0.000569 0.000331 -0.001795
0.000346 0.002660 -0.000253
-0.000367 0.001160 0.000789
-0.000853 -0.003051 0.001275
0.000503 0.001711 -0.003753
-0.004018 0.001699 -0.001196
0.000343 -0.000432 0.000139
0.001085 -0.002404 -0.002129
-0.002111 0.004298 0.001424
-0.000747 0.000785 -0.002247
0.000378 0.003538 -0.003371
-0.000186 -0.000907 -0.002675
-0.000367 -0.000335 -0.001912
-0.000460 0.001348 -0.002740
0.004480 -0.001426 -0.003872
0.001715 -0.001254 -0.001988
0.002421 -0.002076 0.001654
-0.000586 0.001459 0.001688
-0.000470 0.001369 -0.001580
-0.001241 -0.000263 -0.002184
-0.000280 -0.001945 0.001367
-0.000010 -0.000392 -0.000182
-0.005853 0.000190 0.000826
-0.002238 0.004492 0.000725
0.000251 0.001279 0.000439
-0.001902 0.001081 -0.001275
0.000834 0.001803 -0.004279
-0.001963 -0.002436 0.000649
0.002274 -0.002595 -0.003976
0.002346 0.004348 0.001369
-0.002001 -0.000021 -0.001379
-0.000525 -0.000772 0.002313
0.001258 -0.005675 0.000746
0.003300 -0.002626 -0.001132
0.002741 -0.003176 0.003441
-0.002580 0.001173 -0.001544
-0.002351 0.000992 -0.002150
0.001279 -0.001814 0.004298
-0.002253 -0.002509 -0.000907
0.000136 -0.002355 -0.000092
-0.002649 0.000142 0.000524
-0.000270 -0.003603 0.002066
-0.000079 -0.001210 0.000189
-0.002124 -0.002319 -0.000768
0.002571 -0.000254 -0.000794
-0.000880 0.002481 -0.002723
-0.001462 -0.000663 0.000481
0.000971 0.002629 -0.000319
0.000558 -0.001245 -0.005154
0.000900 0.004272 -0.001516
-0.002814 -0.000620 0.002908
-0.001272 0.000285 -0.001991
-0.005100 -0.003522 -0.000700
-0.001758 -0.000086 0.001387
-0.000990 -0.000582 -0.002632
-0.001534 -0.002682 0.000748
0.000245 -0.003032 0.000022
0.000588 -0.000787 -0.001862
-0.000713 -0.003053 0.002771
-0.001378 -0.002371 0.000293
-0.001764 -0.005324 -0.002609
0.001730 0.001816 0.001212
0.000774 0.003884 0.000919
-0.001368 0.001505 -0.001620
